<?xml version="1.0"?>
<opencv_storage>
<stage5>
  <maxWeakCount>6</maxWeakCount>
  <stageThreshold>-1.4303896427154541e+00</stageThreshold>
  <weakClassifiers>
    <_>
      <internalNodes>
        0 -1 8152 3.1794775277376175e-02</internalNodes>
      <leafValues>
        -6.4726024866104126e-01 4.1176471114158630e-01</leafValues></_>
    <_>
      <internalNodes>
        0 -1 293801 4.1678994894027710e-03</internalNodes>
      <leafValues>
        -6.5872287750244141e-01 2.2020840644836426e-01</leafValues></_>
    <_>
      <internalNodes>
        0 -1 171119 1.2953994795680046e-02</internalNodes>
      <leafValues>
        -4.5486372709274292e-01 3.7019434571266174e-01</leafValues></_>
    <_>
      <internalNodes>
        0 -1 96448 -2.6233011484146118e-01</internalNodes>
      <leafValues>
        7.6170241832733154e-01 -2.4590933322906494e-01</leafValues></_>
    <_>
      <internalNodes>
        0 -1 142453 2.5338303297758102e-02</internalNodes>
      <leafValues>
        2.1142567694187164e-01 -9.3588000535964966e-01</leafValues></_>
    <_>
      <internalNodes>
        0 -1 216846 -6.8978564813733101e-03</internalNodes>
      <leafValues>
        -6.4267075061798096e-01 2.8679963946342468e-01</leafValues></_></weakClassifiers></stage5>
</opencv_storage>
