<?xml version="1.0"?>
<opencv_storage>
<stage8>
  <maxWeakCount>7</maxWeakCount>
  <stageThreshold>-1.6176173686981201e+00</stageThreshold>
  <weakClassifiers>
    <_>
      <internalNodes>
        0 -1 79737 5.4624937474727631e-02</internalNodes>
      <leafValues>
        -7.5105482339859009e-01 3.3707864582538605e-02</leafValues></_>
    <_>
      <internalNodes>
        0 -1 18939 -1.5928361099213362e-03</internalNodes>
      <leafValues>
        -6.0538953542709351e-01 3.2630276679992676e-01</leafValues></_>
    <_>
      <internalNodes>
        0 -1 147035 -8.5505698734777980e-06</internalNodes>
      <leafValues>
        4.5064654946327209e-01 -4.0424621105194092e-01</leafValues></_>
    <_>
      <internalNodes>
        0 -1 299142 9.1119736680411734e-06</internalNodes>
      <leafValues>
        -3.7254694104194641e-01 4.4605904817581177e-01</leafValues></_>
    <_>
      <internalNodes>
        0 -1 21353 -8.5082137957215309e-06</internalNodes>
      <leafValues>
        3.1418693065643311e-01 -5.1564013957977295e-01</leafValues></_>
    <_>
      <internalNodes>
        0 -1 278208 -2.6137658278457820e-04</internalNodes>
      <leafValues>
        4.0238276124000549e-01 -4.0340423583984375e-01</leafValues></_>
    <_>
      <internalNodes>
        0 -1 71343 -8.5405208665179089e-06</internalNodes>
      <leafValues>
        4.7607117891311646e-01 -3.0281478166580200e-01</leafValues></_></weakClassifiers></stage8>
</opencv_storage>
