<?xml version="1.0"?>
<opencv_storage>
<stage3>
  <maxWeakCount>7</maxWeakCount>
  <stageThreshold>-1.2722170352935791e+00</stageThreshold>
  <weakClassifiers>
    <_>
      <internalNodes>
        0 -1 248280 -2.0024525001645088e-03</internalNodes>
      <leafValues>
        6.8181818723678589e-01 -6.2500000000000000e-01</leafValues></_>
    <_>
      <internalNodes>
        0 -1 278212 -1.3366468483582139e-03</internalNodes>
      <leafValues>
        -8.7234675884246826e-01 9.8501376807689667e-02</leafValues></_>
    <_>
      <internalNodes>
        0 -1 55090 3.9533399045467377e-02</internalNodes>
      <leafValues>
        -4.2193114757537842e-01 4.5449945330619812e-01</leafValues></_>
    <_>
      <internalNodes>
        0 -1 505 6.6245168447494507e-02</internalNodes>
      <leafValues>
        -5.5748343467712402e-01 3.6180862784385681e-01</leafValues></_>
    <_>
      <internalNodes>
        0 -1 42453 1.4842841774225235e-02</internalNodes>
      <leafValues>
        -5.7144790887832642e-01 4.2592990398406982e-01</leafValues></_>
    <_>
      <internalNodes>
        0 -1 89618 1.3549298455473036e-04</internalNodes>
      <leafValues>
        3.1986796855926514e-01 -5.5330091714859009e-01</leafValues></_>
    <_>
      <internalNodes>
        0 -1 314471 8.6674972408218309e-06</internalNodes>
      <leafValues>
        -4.1768422722816467e-01 4.7316685318946838e-01</leafValues></_></weakClassifiers></stage3>
</opencv_storage>
