<?xml version="1.0"?>
<opencv_storage>
<stage10>
  <maxWeakCount>10</maxWeakCount>
  <stageThreshold>-1.4589275121688843e+00</stageThreshold>
  <weakClassifiers>
    <_>
      <internalNodes>
        0 -1 76379 -1.1505512520670891e-02</internalNodes>
      <leafValues>
        4.3333333730697632e-01 -6.3513511419296265e-01</leafValues></_>
    <_>
      <internalNodes>
        0 -1 109976 3.2726954668760300e-03</internalNodes>
      <leafValues>
        -5.5545544624328613e-01 1.5246884524822235e-01</leafValues></_>
    <_>
      <internalNodes>
        0 -1 203178 2.8260266408324242e-03</internalNodes>
      <leafValues>
        1.5108963847160339e-01 -7.0821940898895264e-01</leafValues></_>
    <_>
      <internalNodes>
        0 -1 224280 -8.5482643044088036e-06</internalNodes>
      <leafValues>
        2.8710421919822693e-01 -4.5445710420608521e-01</leafValues></_>
    <_>
      <internalNodes>
        0 -1 32602 3.4701570868492126e-02</internalNodes>
      <leafValues>
        -4.1668716073036194e-01 3.7735307216644287e-01</leafValues></_>
    <_>
      <internalNodes>
        0 -1 49246 -1.3707011938095093e-01</internalNodes>
      <leafValues>
        6.8693828582763672e-01 -2.1671405434608459e-01</leafValues></_>
    <_>
      <internalNodes>
        0 -1 13906 -8.9517736341804266e-04</internalNodes>
      <leafValues>
        -8.8629126548767090e-01 1.5933300554752350e-01</leafValues></_>
    <_>
      <internalNodes>
        0 -1 259034 -4.1649080812931061e-03</internalNodes>
      <leafValues>
        6.1461359262466431e-01 -2.4385802447795868e-01</leafValues></_>
    <_>
      <internalNodes>
        0 -1 14926 -1.5252040699124336e-02</internalNodes>
      <leafValues>
        8.0824923515319824e-01 -1.5769307315349579e-01</leafValues></_>
    <_>
      <internalNodes>
        0 -1 86280 1.3097166083753109e-04</internalNodes>
      <leafValues>
        2.6799440383911133e-01 -5.3977602720260620e-01</leafValues></_></weakClassifiers></stage10>
</opencv_storage>
