<?xml version="1.0"?>
<opencv_storage>
<stage11>
  <maxWeakCount>8</maxWeakCount>
  <stageThreshold>-1.0866281986236572e+00</stageThreshold>
  <weakClassifiers>
    <_>
      <internalNodes>
        0 -1 305822 -8.8445786386728287e-03</internalNodes>
      <leafValues>
        5.8974361419677734e-01 -6.0848289728164673e-01</leafValues></_>
    <_>
      <internalNodes>
        0 -1 239704 1.6389486845582724e-03</internalNodes>
      <leafValues>
        -3.2849043607711792e-01 4.2498895525932312e-01</leafValues></_>
    <_>
      <internalNodes>
        0 -1 302091 6.5326057374477386e-03</internalNodes>
      <leafValues>
        -3.4752085804939270e-01 3.4029442071914673e-01</leafValues></_>
    <_>
      <internalNodes>
        0 -1 277974 -1.1676332214847207e-03</internalNodes>
      <leafValues>
        2.1328270435333252e-01 -5.9179592132568359e-01</leafValues></_>
    <_>
      <internalNodes>
        0 -1 315960 -8.3708390593528748e-04</internalNodes>
      <leafValues>
        -3.6700800061225891e-01 3.9300408959388733e-01</leafValues></_>
    <_>
      <internalNodes>
        0 -1 235477 2.1601454354822636e-03</internalNodes>
      <leafValues>
        -5.4481667280197144e-01 2.7003404498100281e-01</leafValues></_>
    <_>
      <internalNodes>
        0 -1 48072 1.2722671031951904e-02</internalNodes>
      <leafValues>
        -3.3209788799285889e-01 4.8654916882514954e-01</leafValues></_>
    <_>
      <internalNodes>
        0 -1 32138 2.0570812746882439e-02</internalNodes>
      <leafValues>
        -2.1932147443294525e-01 6.7199826240539551e-01</leafValues></_></weakClassifiers></stage11>
</opencv_storage>
